digraph Tree {
node [shape=box] ;
0 [label="X[3] <= 433.0\nentropy = 1.58\nsamples = 209\nvalue = [122, 28, 45, 14]"] ;
1 [label="X[3] <= 213.5\nentropy = 1.447\nsamples = 185\nvalue = [122, 28, 21, 14]"] ;
0 -> 1 [labeldistance=2.5, labelangle=45, headlabel="True"] ;
2 [label="X[0] <= -354.64\nentropy = 0.773\nsamples = 13\nvalue = [1, 11, 0, 1]"] ;
1 -> 2 ;
3 [label="X[3] <= 201.5\nentropy = 1.0\nsamples = 2\nvalue = [1, 0, 0, 1]"] ;
2 -> 3 ;
4 [label="entropy = 0.0\nsamples = 1\nvalue = [1, 0, 0, 0]"] ;
3 -> 4 ;
5 [label="entropy = 0.0\nsamples = 1\nvalue = [0, 0, 0, 1]"] ;
3 -> 5 ;
6 [label="entropy = 0.0\nsamples = 11\nvalue = [0, 11, 0, 0]"] ;
2 -> 6 ;
7 [label="X[2] <= 3.354\nentropy = 1.339\nsamples = 172\nvalue = [121, 17, 21, 13]"] ;
1 -> 7 ;
8 [label="X[0] <= -60.277\nentropy = 0.999\nsamples = 89\nvalue = [72, 7, 4, 6]"] ;
7 -> 8 ;
9 [label="X[0] <= -294.953\nentropy = 0.741\nsamples = 48\nvalue = [40, 7, 0, 1]"] ;
8 -> 9 ;
10 [label="X[2] <= 2.383\nentropy = 0.258\nsamples = 23\nvalue = [22, 0, 0, 1]"] ;
9 -> 10 ;
11 [label="entropy = 0.0\nsamples = 17\nvalue = [17, 0, 0, 0]"] ;
10 -> 11 ;
12 [label="X[0] <= -652.628\nentropy = 0.65\nsamples = 6\nvalue = [5, 0, 0, 1]"] ;
10 -> 12 ;
13 [label="entropy = 0.0\nsamples = 1\nvalue = [0, 0, 0, 1]"] ;
12 -> 13 ;
14 [label="entropy = 0.0\nsamples = 5\nvalue = [5, 0, 0, 0]"] ;
12 -> 14 ;
15 [label="X[3] <= 302.5\nentropy = 0.855\nsamples = 25\nvalue = [18, 7, 0, 0]"] ;
9 -> 15 ;
16 [label="X[1] <= 1.625\nentropy = 0.523\nsamples = 17\nvalue = [15, 2, 0, 0]"] ;
15 -> 16 ;
17 [label="entropy = 0.0\nsamples = 8\nvalue = [8, 0, 0, 0]"] ;
16 -> 17 ;
18 [label="X[1] <= 1.637\nentropy = 0.764\nsamples = 9\nvalue = [7, 2, 0, 0]"] ;
16 -> 18 ;
19 [label="entropy = 0.0\nsamples = 1\nvalue = [0, 1, 0, 0]"] ;
18 -> 19 ;
20 [label="X[1] <= 1.93\nentropy = 0.544\nsamples = 8\nvalue = [7, 1, 0, 0]"] ;
18 -> 20 ;
21 [label="entropy = 0.0\nsamples = 6\nvalue = [6, 0, 0, 0]"] ;
20 -> 21 ;
22 [label="X[2] <= 2.567\nentropy = 1.0\nsamples = 2\nvalue = [1, 1, 0, 0]"] ;
20 -> 22 ;
23 [label="entropy = 0.0\nsamples = 1\nvalue = [0, 1, 0, 0]"] ;
22 -> 23 ;
24 [label="entropy = 0.0\nsamples = 1\nvalue = [1, 0, 0, 0]"] ;
22 -> 24 ;
25 [label="X[0] <= -147.007\nentropy = 0.954\nsamples = 8\nvalue = [3, 5, 0, 0]"] ;
15 -> 25 ;
26 [label="entropy = 0.0\nsamples = 4\nvalue = [0, 4, 0, 0]"] ;
25 -> 26 ;
27 [label="X[3] <= 339.0\nentropy = 0.811\nsamples = 4\nvalue = [3, 1, 0, 0]"] ;
25 -> 27 ;
28 [label="entropy = 0.0\nsamples = 3\nvalue = [3, 0, 0, 0]"] ;
27 -> 28 ;
29 [label="entropy = 0.0\nsamples = 1\nvalue = [0, 1, 0, 0]"] ;
27 -> 29 ;
30 [label="X[2] <= -1.333\nentropy = 0.977\nsamples = 41\nvalue = [32, 0, 4, 5]"] ;
8 -> 30 ;
31 [label="entropy = 0.0\nsamples = 2\nvalue = [0, 0, 2, 0]"] ;
30 -> 31 ;
32 [label="X[1] <= 0.941\nentropy = 0.834\nsamples = 39\nvalue = [32, 0, 2, 5]"] ;
30 -> 32 ;
33 [label="entropy = 0.0\nsamples = 11\nvalue = [11, 0, 0, 0]"] ;
32 -> 33 ;
34 [label="X[1] <= 0.986\nentropy = 1.027\nsamples = 28\nvalue = [21, 0, 2, 5]"] ;
32 -> 34 ;
35 [label="entropy = 0.0\nsamples = 1\nvalue = [0, 0, 1, 0]"] ;
34 -> 35 ;
36 [label="X[0] <= 2391.61\nentropy = 0.909\nsamples = 27\nvalue = [21, 0, 1, 5]"] ;
34 -> 36 ;
37 [label="X[0] <= 1117.919\nentropy = 0.831\nsamples = 19\nvalue = [14, 0, 0, 5]"] ;
36 -> 37 ;
38 [label="X[0] <= -57.365\nentropy = 0.672\nsamples = 17\nvalue = [14, 0, 0, 3]"] ;
37 -> 38 ;
39 [label="entropy = 0.0\nsamples = 1\nvalue = [0, 0, 0, 1]"] ;
38 -> 39 ;
40 [label="X[0] <= -25.646\nentropy = 0.544\nsamples = 16\nvalue = [14, 0, 0, 2]"] ;
38 -> 40 ;
41 [label="entropy = 0.0\nsamples = 9\nvalue = [9, 0, 0, 0]"] ;
40 -> 41 ;
42 [label="X[0] <= -15.254\nentropy = 0.863\nsamples = 7\nvalue = [5, 0, 0, 2]"] ;
40 -> 42 ;
43 [label="entropy = 0.0\nsamples = 2\nvalue = [0, 0, 0, 2]"] ;
42 -> 43 ;
44 [label="entropy = 0.0\nsamples = 5\nvalue = [5, 0, 0, 0]"] ;
42 -> 44 ;
45 [label="entropy = 0.0\nsamples = 2\nvalue = [0, 0, 0, 2]"] ;
37 -> 45 ;
46 [label="X[2] <= 0.52\nentropy = 0.544\nsamples = 8\nvalue = [7, 0, 1, 0]"] ;
36 -> 46 ;
47 [label="entropy = 0.0\nsamples = 1\nvalue = [0, 0, 1, 0]"] ;
46 -> 47 ;
48 [label="entropy = 0.0\nsamples = 7\nvalue = [7, 0, 0, 0]"] ;
46 -> 48 ;
49 [label="X[0] <= 18492.236\nentropy = 1.586\nsamples = 83\nvalue = [49, 10, 17, 7]"] ;
7 -> 49 ;
50 [label="X[0] <= 7068.421\nentropy = 1.529\nsamples = 77\nvalue = [46, 10, 17, 4]"] ;
49 -> 50 ;
51 [label="X[1] <= 2.516\nentropy = 1.497\nsamples = 72\nvalue = [45, 10, 13, 4]"] ;
50 -> 51 ;
52 [label="X[1] <= 2.082\nentropy = 1.629\nsamples = 35\nvalue = [17, 4, 12, 2]"] ;
51 -> 52 ;
53 [label="X[2] <= 5.397\nentropy = 1.452\nsamples = 17\nvalue = [11, 1, 3, 2]"] ;
52 -> 53 ;
54 [label="X[2] <= 3.727\nentropy = 1.041\nsamples = 12\nvalue = [9, 0, 1, 2]"] ;
53 -> 54 ;
55 [label="X[1] <= 1.795\nentropy = 1.0\nsamples = 2\nvalue = [1, 0, 1, 0]"] ;
54 -> 55 ;
56 [label="entropy = 0.0\nsamples = 1\nvalue = [1, 0, 0, 0]"] ;
55 -> 56 ;
57 [label="entropy = 0.0\nsamples = 1\nvalue = [0, 0, 1, 0]"] ;
55 -> 57 ;
58 [label="X[1] <= 2.053\nentropy = 0.722\nsamples = 10\nvalue = [8, 0, 0, 2]"] ;
54 -> 58 ;
59 [label="X[3] <= 333.5\nentropy = 0.503\nsamples = 9\nvalue = [8, 0, 0, 1]"] ;
58 -> 59 ;
60 [label="entropy = 0.0\nsamples = 8\nvalue = [8, 0, 0, 0]"] ;
59 -> 60 ;
61 [label="entropy = 0.0\nsamples = 1\nvalue = [0, 0, 0, 1]"] ;
59 -> 61 ;
62 [label="entropy = 0.0\nsamples = 1\nvalue = [0, 0, 0, 1]"] ;
58 -> 62 ;
63 [label="X[3] <= 305.5\nentropy = 1.522\nsamples = 5\nvalue = [2, 1, 2, 0]"] ;
53 -> 63 ;
64 [label="X[1] <= 0.662\nentropy = 0.918\nsamples = 3\nvalue = [2, 1, 0, 0]"] ;
63 -> 64 ;
65 [label="entropy = 0.0\nsamples = 2\nvalue = [2, 0, 0, 0]"] ;
64 -> 65 ;
66 [label="entropy = 0.0\nsamples = 1\nvalue = [0, 1, 0, 0]"] ;
64 -> 66 ;
67 [label="entropy = 0.0\nsamples = 2\nvalue = [0, 0, 2, 0]"] ;
63 -> 67 ;
68 [label="X[2] <= 3.835\nentropy = 1.459\nsamples = 18\nvalue = [6, 3, 9, 0]"] ;
52 -> 68 ;
69 [label="entropy = 0.0\nsamples = 2\nvalue = [0, 2, 0, 0]"] ;
68 -> 69 ;
70 [label="X[1] <= 2.476\nentropy = 1.248\nsamples = 16\nvalue = [6, 1, 9, 0]"] ;
68 -> 70 ;
71 [label="X[0] <= -357.331\nentropy = 1.0\nsamples = 12\nvalue = [6, 0, 6, 0]"] ;
70 -> 71 ;
72 [label="entropy = 0.0\nsamples = 3\nvalue = [0, 0, 3, 0]"] ;
71 -> 72 ;
73 [label="X[3] <= 248.0\nentropy = 0.918\nsamples = 9\nvalue = [6, 0, 3, 0]"] ;
71 -> 73 ;
74 [label="entropy = 0.0\nsamples = 3\nvalue = [3, 0, 0, 0]"] ;
73 -> 74 ;
75 [label="X[1] <= 2.264\nentropy = 1.0\nsamples = 6\nvalue = [3, 0, 3, 0]"] ;
73 -> 75 ;
76 [label="entropy = 0.0\nsamples = 2\nvalue = [0, 0, 2, 0]"] ;
75 -> 76 ;
77 [label="X[2] <= 4.057\nentropy = 0.811\nsamples = 4\nvalue = [3, 0, 1, 0]"] ;
75 -> 77 ;
78 [label="entropy = 0.0\nsamples = 1\nvalue = [0, 0, 1, 0]"] ;
77 -> 78 ;
79 [label="entropy = 0.0\nsamples = 3\nvalue = [3, 0, 0, 0]"] ;
77 -> 79 ;
80 [label="X[3] <= 309.5\nentropy = 0.811\nsamples = 4\nvalue = [0, 1, 3, 0]"] ;
70 -> 80 ;
81 [label="entropy = 0.0\nsamples = 3\nvalue = [0, 0, 3, 0]"] ;
80 -> 81 ;
82 [label="entropy = 0.0\nsamples = 1\nvalue = [0, 1, 0, 0]"] ;
80 -> 82 ;
83 [label="X[0] <= 3184.748\nentropy = 1.098\nsamples = 37\nvalue = [28, 6, 1, 2]"] ;
51 -> 83 ;
84 [label="X[2] <= 10.689\nentropy = 0.812\nsamples = 30\nvalue = [25, 3, 0, 2]"] ;
83 -> 84 ;
85 [label="X[2] <= 8.967\nentropy = 1.054\nsamples = 20\nvalue = [15, 3, 0, 2]"] ;
84 -> 85 ;
86 [label="X[3] <= 286.0\nentropy = 0.391\nsamples = 13\nvalue = [12, 1, 0, 0]"] ;
85 -> 86 ;
87 [label="entropy = 0.0\nsamples = 11\nvalue = [11, 0, 0, 0]"] ;
86 -> 87 ;
88 [label="X[2] <= 7.254\nentropy = 1.0\nsamples = 2\nvalue = [1, 1, 0, 0]"] ;
86 -> 88 ;
89 [label="entropy = 0.0\nsamples = 1\nvalue = [0, 1, 0, 0]"] ;
88 -> 89 ;
90 [label="entropy = 0.0\nsamples = 1\nvalue = [1, 0, 0, 0]"] ;
88 -> 90 ;
91 [label="X[0] <= -391.699\nentropy = 1.557\nsamples = 7\nvalue = [3, 2, 0, 2]"] ;
85 -> 91 ;
92 [label="X[0] <= -41121.863\nentropy = 1.0\nsamples = 4\nvalue = [2, 2, 0, 0]"] ;
91 -> 92 ;
93 [label="entropy = 0.0\nsamples = 2\nvalue = [2, 0, 0, 0]"] ;
92 -> 93 ;
94 [label="entropy = 0.0\nsamples = 2\nvalue = [0, 2, 0, 0]"] ;
92 -> 94 ;
95 [label="X[3] <= 235.5\nentropy = 0.918\nsamples = 3\nvalue = [1, 0, 0, 2]"] ;
91 -> 95 ;
96 [label="entropy = 0.0\nsamples = 1\nvalue = [1, 0, 0, 0]"] ;
95 -> 96 ;
97 [label="entropy = 0.0\nsamples = 2\nvalue = [0, 0, 0, 2]"] ;
95 -> 97 ;
98 [label="entropy = 0.0\nsamples = 10\nvalue = [10, 0, 0, 0]"] ;
84 -> 98 ;
99 [label="X[0] <= 3599.664\nentropy = 1.449\nsamples = 7\nvalue = [3, 3, 1, 0]"] ;
83 -> 99 ;
100 [label="entropy = 0.0\nsamples = 1\nvalue = [0, 0, 1, 0]"] ;
99 -> 100 ;
101 [label="X[2] <= 18.64\nentropy = 1.0\nsamples = 6\nvalue = [3, 3, 0, 0]"] ;
99 -> 101 ;
102 [label="X[1] <= 3.01\nentropy = 0.811\nsamples = 4\nvalue = [1, 3, 0, 0]"] ;
101 -> 102 ;
103 [label="entropy = 0.0\nsamples = 1\nvalue = [1, 0, 0, 0]"] ;
102 -> 103 ;
104 [label="entropy = 0.0\nsamples = 3\nvalue = [0, 3, 0, 0]"] ;
102 -> 104 ;
105 [label="entropy = 0.0\nsamples = 2\nvalue = [2, 0, 0, 0]"] ;
101 -> 105 ;
106 [label="X[2] <= 9.432\nentropy = 0.722\nsamples = 5\nvalue = [1, 0, 4, 0]"] ;
50 -> 106 ;
107 [label="entropy = 0.0\nsamples = 1\nvalue = [1, 0, 0, 0]"] ;
106 -> 107 ;
108 [label="entropy = 0.0\nsamples = 4\nvalue = [0, 0, 4, 0]"] ;
106 -> 108 ;
109 [label="X[3] <= 328.0\nentropy = 1.0\nsamples = 6\nvalue = [3, 0, 0, 3]"] ;
49 -> 109 ;
110 [label="X[3] <= 303.5\nentropy = 0.971\nsamples = 5\nvalue = [2, 0, 0, 3]"] ;
109 -> 110 ;
111 [label="X[1] <= 2.831\nentropy = 0.918\nsamples = 3\nvalue = [2, 0, 0, 1]"] ;
110 -> 111 ;
112 [label="entropy = 0.0\nsamples = 1\nvalue = [0, 0, 0, 1]"] ;
111 -> 112 ;
113 [label="entropy = 0.0\nsamples = 2\nvalue = [2, 0, 0, 0]"] ;
111 -> 113 ;
114 [label="entropy = 0.0\nsamples = 2\nvalue = [0, 0, 0, 2]"] ;
110 -> 114 ;
115 [label="entropy = 0.0\nsamples = 1\nvalue = [1, 0, 0, 0]"] ;
109 -> 115 ;
116 [label="entropy = 0.0\nsamples = 24\nvalue = [0, 0, 24, 0]"] ;
0 -> 116 [labeldistance=2.5, labelangle=-45, headlabel="False"] ;
}
